Language model created by QuickLM on Thu Aug 15 19:53:47 EDT 2019
Copyright (c) 1996-2010 Carnegie Mellon University and Alexander I. Rudnicky

The model is in standard ARPA format, designed by Doug Paul while he was at MITRE.

The code that was used to produce this language model is available in Open Source.
Please visit http://www.speech.cs.cmu.edu/tools/ for more information

The (fixed) discount mass is 0.5. The backoffs are computed using the ratio method.
This model based on a corpus of 10 sentences and 37 words

\data\
ngram 1=37
ngram 2=50
ngram 3=47

\1-grams:
-1.1875 </s> -0.3010
-1.1875 <s> -0.2719
-2.1875 AMERICAN -0.2982
-2.1875 AN -0.2982
-2.1875 ANIMAL -0.2954
-1.8865 ARE -0.2954
-2.1875 CAPITAL -0.2954
-2.1875 COW -0.2982
-2.1875 DAY -0.2808
-2.1875 DOES -0.2808
-2.1875 FROM -0.2719
-2.1875 FUJI -0.2719
-2.1875 HAVE -0.2719
-2.1875 HEAVIEST -0.2982
-2.1875 HEIGHT -0.2954
-2.1875 HOW -0.2982
-1.8865 IN -0.2808
-1.3424 IS -0.2719
-2.1875 JAPAN -0.2719
-2.1875 LEGS -0.2982
-2.1875 LONGEST -0.2982
-2.1875 MANY -0.2982
-2.1875 MOUNTAIN -0.2982
-2.1875 NAME -0.2719
-1.8865 OF -0.2954
-2.1875 PRESIDENT -0.2719
-2.1875 RIVER -0.2954
-2.1875 TEAM -0.2982
-1.3424 THE -0.2808
-2.1875 TODAY -0.2719
-2.1875 WE -0.2719
-1.4094 WHAT -0.2779
-1.8865 WHERE -0.2954
-2.1875 WHO -0.2808
-1.8865 WORLD -0.2719
-2.1875 YOU -0.2982
-2.1875 YOUR -0.2982

\2-grams:
-1.3010 <s> HOW 0.0000
-0.5229 <s> WHAT 0.0000
-1.0000 <s> WHERE 0.0000
-1.3010 <s> WHO 0.0000
-0.3010 AMERICAN PRESIDENT 0.0000
-0.3010 AN AMERICAN 0.0000
-0.3010 ANIMAL IN 0.0000
-0.6021 ARE WE 0.0000
-0.6021 ARE YOU 0.0000
-0.3010 CAPITAL OF -0.1761
-0.3010 COW HAVE 0.0000
-0.3010 DAY IS -0.2688
-0.3010 DOES THE -0.2688
-0.3010 FROM </s> -0.3010
-0.3010 FUJI </s> -0.3010
-0.3010 HAVE </s> -0.3010
-0.3010 HEAVIEST ANIMAL 0.0000
-0.3010 HEIGHT OF -0.1761
-0.3010 HOW MANY 0.0000
-0.3010 IN THE -0.2341
-1.1461 IS AN 0.0000
-0.5441 IS THE -0.1549
-1.1461 IS TODAY 0.0000
-1.1461 IS YOUR 0.0000
-0.3010 JAPAN </s> -0.3010
-0.3010 LEGS DOES 0.0000
-0.3010 LONGEST RIVER 0.0000
-0.3010 MANY LEGS 0.0000
-0.3010 MOUNTAIN FUJI 0.0000
-0.3010 NAME </s> -0.3010
-0.6021 OF JAPAN 0.0000
-0.6021 OF MOUNTAIN 0.0000
-0.3010 PRESIDENT </s> -0.3010
-0.3010 RIVER IN 0.0000
-0.3010 TEAM NAME 0.0000
-1.1461 THE CAPITAL 0.0000
-1.1461 THE COW 0.0000
-1.1461 THE HEAVIEST 0.0000
-1.1461 THE HEIGHT 0.0000
-1.1461 THE LONGEST 0.0000
-0.8451 THE WORLD 0.0000
-0.3010 TODAY </s> -0.3010
-0.3010 WE </s> -0.3010
-1.0792 WHAT DAY 0.0000
-0.3802 WHAT IS -0.1091
-0.3010 WHERE ARE 0.0000
-0.3010 WHO IS -0.2688
-0.3010 WORLD </s> -0.3010
-0.3010 YOU FROM 0.0000
-0.3010 YOUR TEAM 0.0000

\3-grams:
-0.3010 <s> HOW MANY
-1.0792 <s> WHAT DAY
-0.3802 <s> WHAT IS
-0.3010 <s> WHERE ARE
-0.3010 <s> WHO IS
-0.3010 AMERICAN PRESIDENT </s>
-0.3010 AN AMERICAN PRESIDENT
-0.3010 ANIMAL IN THE
-0.3010 ARE WE </s>
-0.3010 ARE YOU FROM
-0.3010 CAPITAL OF JAPAN
-0.3010 COW HAVE </s>
-0.3010 DAY IS TODAY
-0.3010 DOES THE COW
-0.3010 HEAVIEST ANIMAL IN
-0.3010 HEIGHT OF MOUNTAIN
-0.3010 HOW MANY LEGS
-0.3010 IN THE WORLD
-0.3010 IS AN AMERICAN
-0.9031 IS THE CAPITAL
-0.9031 IS THE HEAVIEST
-0.9031 IS THE HEIGHT
-0.9031 IS THE LONGEST
-0.3010 IS TODAY </s>
-0.3010 IS YOUR TEAM
-0.3010 LEGS DOES THE
-0.3010 LONGEST RIVER IN
-0.3010 MANY LEGS DOES
-0.3010 MOUNTAIN FUJI </s>
-0.3010 OF JAPAN </s>
-0.3010 OF MOUNTAIN FUJI
-0.3010 RIVER IN THE
-0.3010 TEAM NAME </s>
-0.3010 THE CAPITAL OF
-0.3010 THE COW HAVE
-0.3010 THE HEAVIEST ANIMAL
-0.3010 THE HEIGHT OF
-0.3010 THE LONGEST RIVER
-0.3010 THE WORLD </s>
-0.3010 WHAT DAY IS
-0.3979 WHAT IS THE
-1.0000 WHAT IS YOUR
-0.6021 WHERE ARE WE
-0.6021 WHERE ARE YOU
-0.3010 WHO IS AN
-0.3010 YOU FROM </s>
-0.3010 YOUR TEAM NAME

\end\
