Language model created by QuickLM on Fri Jul 26 05:59:09 EDT 2019
Copyright (c) 1996-2010 Carnegie Mellon University and Alexander I. Rudnicky

The model is in standard ARPA format, designed by Doug Paul while he was at MITRE.

The code that was used to produce this language model is available in Open Source.
Please visit http://www.speech.cs.cmu.edu/tools/ for more information

The (fixed) discount mass is 0.5. The backoffs are computed using the ratio method.
This model based on a corpus of 11 sentences and 49 words

\data\
ngram 1=49
ngram 2=70
ngram 3=71

\1-grams:
-1.2640 </s> -0.3010
-1.2640 <s> -0.2767
-2.0043 ARE -0.2967
-2.3054 BEAR -0.2989
-2.3054 BIG -0.2857
-2.3054 BUILD -0.2767
-2.3054 CALLED -0.2767
-2.0043 CANADA -0.2767
-2.3054 CANADIAN -0.2967
-2.3054 CUB -0.2767
-2.3054 DE -0.2989
-2.3054 ELSE -0.2857
-2.0043 FORMED -0.2767
-2.3054 GLACE -0.2989
-2.3054 HANDSOME -0.2989
-2.3054 HOTEL -0.2989
-1.7033 HOW -0.2923
-2.3054 ICE -0.2967
-1.7033 IN -0.2744
-1.4603 IS -0.2767
-2.3054 LOCATED -0.2767
-2.3054 LONG -0.2857
-2.3054 LONGEST -0.2967
-2.0043 MANY -0.2967
-2.3054 MONTREAL -0.2989
-2.3054 MOST -0.2989
-2.0043 MOUNTED -0.2967
-2.3054 NAME -0.2967
-2.0043 OF -0.2790
-2.3054 ONTARIO -0.2767
-2.3054 PERSON -0.2923
-2.0043 POLICE -0.2967
-2.3054 RCMP -0.2767
-2.3054 REQUIRED -0.2989
-2.3054 ROYAL -0.2989
-2.0043 STREET -0.2923
-1.3511 THE -0.2790
-2.3054 THERE -0.2923
-2.3054 TIME -0.2989
-2.3054 TO -0.2989
-2.3054 TONS -0.2967
-2.0043 WAS -0.2812
-1.8282 WHAT -0.2835
-2.0043 WHEN -0.2967
-2.3054 WHERE -0.2857
-2.3054 WHO -0.2857
-2.3054 WORLD -0.2767
-2.3054 YONGE -0.2967
-2.3054 ZONES -0.2967

\2-grams:
-0.7404 <s> HOW 0.0000
-0.8653 <s> WHAT 0.0000
-1.0414 <s> WHEN 0.0000
-1.3424 <s> WHERE 0.0000
-1.3424 <s> WHO 0.0000
-0.6021 ARE REQUIRED 0.0000
-0.6021 ARE THERE 0.0000
-0.3010 BEAR CUB 0.0000
-0.3010 BIG IS -0.1091
-0.3010 BUILD </s> -0.3010
-0.3010 CALLED </s> -0.3010
-0.3010 CANADA </s> -0.3010
-0.3010 CANADIAN MOUNTED 0.0000
-0.3010 CUB </s> -0.3010
-0.3010 DE GLACE 0.0000
-0.3010 ELSE IS -0.2688
-0.3010 FORMED </s> -0.3010
-0.3010 GLACE LOCATED 0.0000
-0.3010 HANDSOME PERSON 0.0000
-0.3010 HOTEL DE 0.0000
-0.9031 HOW BIG 0.0000
-0.9031 HOW LONG 0.0000
-0.6021 HOW MANY 0.0000
-0.3010 ICE ARE -0.1761
-0.6021 IN CANADA 0.0000
-0.9031 IN ONTARIO 0.0000
-0.9031 IN THE -0.2762
-1.1461 IS MONTREAL 0.0000
-0.4472 IS THE -0.1597
-1.1461 IS YONGE 0.0000
-0.3010 LOCATED </s> -0.3010
-0.3010 LONG IS -0.2688
-0.3010 LONGEST STREET 0.0000
-0.6021 MANY TIME 0.0000
-0.6021 MANY TONS 0.0000
-0.3010 MONTREAL CALLED 0.0000
-0.3010 MOST HANDSOME 0.0000
-0.3010 MOUNTED POLICE 0.0000
-0.3010 NAME OF -0.1761
-0.6021 OF ICE 0.0000
-0.6021 OF THE -0.2762
-0.3010 ONTARIO </s> -0.3010
-0.3010 PERSON IN -0.1761
-0.3010 POLICE FORMED 0.0000
-0.3010 RCMP </s> -0.3010
-0.3010 REQUIRED TO 0.0000
-0.3010 ROYAL CANADIAN 0.0000
-0.3010 STREET IN -0.1761
-1.2553 THE BEAR 0.0000
-1.2553 THE HOTEL 0.0000
-1.2553 THE LONGEST 0.0000
-1.2553 THE MOST 0.0000
-1.2553 THE MOUNTED 0.0000
-1.2553 THE NAME 0.0000
-1.2553 THE RCMP 0.0000
-1.2553 THE ROYAL 0.0000
-1.2553 THE WORLD 0.0000
-0.3010 THERE IN -0.1761
-0.3010 TIME ZONES 0.0000
-0.3010 TO BUILD 0.0000
-0.3010 TONS OF -0.1761
-0.3010 WAS THE -0.2499
-0.7782 WHAT ELSE 0.0000
-0.4771 WHAT IS -0.1091
-0.3010 WHEN WAS 0.0000
-0.3010 WHERE IS -0.1091
-0.3010 WHO IS -0.1091
-0.3010 WORLD </s> -0.3010
-0.3010 YONGE STREET 0.0000
-0.3010 ZONES ARE -0.1761

\3-grams:
-0.9031 <s> HOW BIG
-0.9031 <s> HOW LONG
-0.6021 <s> HOW MANY
-0.7782 <s> WHAT ELSE
-0.4771 <s> WHAT IS
-0.3010 <s> WHEN WAS
-0.3010 <s> WHERE IS
-0.3010 <s> WHO IS
-0.3010 ARE REQUIRED TO
-0.3010 ARE THERE IN
-0.3010 BEAR CUB </s>
-0.3010 BIG IS THE
-0.3010 CANADIAN MOUNTED POLICE
-0.3010 DE GLACE LOCATED
-0.3010 ELSE IS MONTREAL
-0.3010 GLACE LOCATED </s>
-0.3010 HANDSOME PERSON IN
-0.3010 HOTEL DE GLACE
-0.3010 HOW BIG IS
-0.3010 HOW LONG IS
-0.6021 HOW MANY TIME
-0.6021 HOW MANY TONS
-0.3010 ICE ARE REQUIRED
-0.3010 IN CANADA </s>
-0.3010 IN ONTARIO </s>
-0.3010 IN THE WORLD
-0.3010 IS MONTREAL CALLED
-1.0000 IS THE HOTEL
-1.0000 IS THE LONGEST
-1.0000 IS THE MOST
-1.0000 IS THE NAME
-1.0000 IS THE RCMP
-0.3010 IS YONGE STREET
-0.3010 LONG IS YONGE
-0.3010 LONGEST STREET IN
-0.3010 MANY TIME ZONES
-0.3010 MANY TONS OF
-0.3010 MONTREAL CALLED </s>
-0.3010 MOST HANDSOME PERSON
-0.3010 MOUNTED POLICE FORMED
-0.3010 NAME OF THE
-0.3010 OF ICE ARE
-0.3010 OF THE BEAR
-0.3010 PERSON IN CANADA
-0.3010 POLICE FORMED </s>
-0.3010 REQUIRED TO BUILD
-0.3010 ROYAL CANADIAN MOUNTED
-0.6021 STREET IN ONTARIO
-0.6021 STREET IN THE
-0.3010 THE BEAR CUB
-0.3010 THE HOTEL DE
-0.3010 THE LONGEST STREET
-0.3010 THE MOST HANDSOME
-0.3010 THE MOUNTED POLICE
-0.3010 THE NAME OF
-0.3010 THE RCMP </s>
-0.3010 THE ROYAL CANADIAN
-0.3010 THE WORLD </s>
-0.3010 THERE IN CANADA
-0.3010 TIME ZONES ARE
-0.3010 TO BUILD </s>
-0.3010 TONS OF ICE
-0.6021 WAS THE MOUNTED
-0.6021 WAS THE ROYAL
-0.3010 WHAT ELSE IS
-0.3010 WHAT IS THE
-0.3010 WHEN WAS THE
-0.3010 WHERE IS THE
-0.3010 WHO IS THE
-0.3010 YONGE STREET IN
-0.3010 ZONES ARE THERE

\end\
